0.9949940897091729006 0.86516723898155518295 -0.74383465703284420013 0.998038380608064452 -0.52368303832937745603 -0.20916250528160915077 -0.22323629153875224922 0.33624790567239189992 0.86856438758823015884 0.6967396503633673024 -0.3756689811653495507 0.04999414660055682968 -0.11634029103567724098 -0.543452829655152608 0.07263535972445147696 0.82727255082278732884 -0.08534531687744123803 -0.14188125428413070923 0.8742928108211282948 0.5609175556910515775 0.42961449764641840553 0.60645895891770336167 -0.8176420330976959858 0.0337940858777786688 0.72845706513820211476 0.67384425474740409595 0.6745149957388565055 -0.456083294683510854 -0.86700371053504935126 0.3570087608607020948 0.1846640894742935093 0.35740808363466667765 -0.162468935135490874 -0.60641895378787158985 -0.41053928127211565958 -0.7045773220590248792 0.56445276722833695785 -0.15847828536815764379 -0.9142826108142853983 0.123403364889371570606 0.33983551813257098647 -0.49791397526608283282 -0.09106215124266245091 -0.64124179009075138143 -0.83825477862308666916 