0.99840876982557630114 0.8625777224552241477 -0.7416236030900752152 0.9964184043421202278 -0.5285823551724033584 -0.20917981975473978058 -0.22270218252821878506 0.34120065238421470863 0.87822437417152371023 0.69201751623607956227 -0.37568543456310740804 0.050508834809734841727 -0.11156671744914580582 -0.5341424169240439342 0.070472888302803143355 0.8272646519645535872 -0.085109456113864409835 -0.13969513637828177548 0.8785568003774984878 0.5560143640066410431 0.4295972448939648792 0.6069934566847818316 -0.81268538794967077314 0.043461641035333866042 0.742263219359115948 0.65683371017071252087 0.6478191268757696692 -0.44423781171010103227 -0.88158040093569245676 0.3340980030603580363 0.19714492598456613926 0.34202998301984097055 -0.186601981290724355 -0.59805698231672791993 -0.4208365684804699613 -0.72074804808181752947 0.5783520013249868298 -0.17559932006372291269 -0.94115986935144349383 0.29764375947818006248 0.3563542069642184213 -0.36258741564502043795 -0.078820722852760558305 -0.52110867805593481377 -0.82665771714317003724 